<?xml version="1.0"?>
<opencv_storage>
<my_svm type_id="opencv-ml-svm">
  <svm_type>C_SVC</svm_type>
  <kernel><type>LINEAR</type></kernel>
  <C>1.0000000000000000e-002</C>
  <term_criteria><epsilon>1.1920928955078125e-007</epsilon>
    <iterations>1000</iterations></term_criteria>
  <var_all>1296</var_all>
  <var_count>1296</var_count>
  <class_count>2</class_count>
  <class_labels type_id="opencv-matrix">
    <rows>1</rows>
    <cols>2</cols>
    <dt>i</dt>
    <data>
      -1 1</data></class_labels>
  <sv_total>1</sv_total>
  <support_vectors>
    <_>
      4.52580154e-002 5.25395898e-003 -3.72937433e-002 -4.17944230e-002
      -6.48964010e-003 6.50229976e-002 6.45977929e-002 7.31742606e-002
      3.69001441e-002 -3.16653773e-002 -3.36921215e-002 -7.93089271e-002
      -2.12263651e-002 3.19811516e-002 5.28474376e-002 1.54624907e-002
      2.22861953e-002 -3.21180001e-002 1.36458063e-002 7.22537264e-002
      5.42516187e-002 -5.86021617e-002 -5.56492992e-002 1.18528195e-002
      1.34238955e-002 1.23544335e-002 -4.44315113e-002 1.64987352e-002
      -2.82477085e-002 1.65916514e-002 -9.05641317e-002 -1.24618541e-002
      -1.45220933e-002 1.28376959e-002 -1.90892555e-002 4.10985909e-002
      -7.11824596e-002 2.38550175e-002 5.49704321e-002 7.87680224e-002
      1.46826012e-002 -7.66777620e-003 -8.29554498e-002 -1.62158348e-002
      -5.81323169e-002 -1.94182377e-002 1.72677785e-002 1.56227536e-002
      9.17395279e-002 2.27664206e-002 1.02996491e-002 -4.23781276e-002
      2.07778122e-002 -7.89284706e-003 -3.05574834e-002 -1.78742949e-002
      1.45452218e-002 -1.25099942e-002 -3.97956371e-003 -7.42353275e-002
      -1.36404037e-001 -2.44707875e-002 -1.05857700e-002
      -3.11579369e-002 -2.30222289e-002 -2.85228472e-002 4.54007275e-003
      3.34207080e-002 -1.19046206e-002 -8.96749347e-002 -9.10856947e-003
      1.38384225e-002 -3.91700445e-003 1.95603278e-002 6.94668945e-003
      6.99412972e-002 -4.14715819e-002 -4.42979522e-002 -8.19796771e-002
      2.30538100e-003 -5.14191352e-002 2.87441234e-003 9.49689187e-003
      1.38665754e-002 2.01271344e-002 5.31604514e-002 4.20478396e-002
      1.40689127e-002 3.93498726e-002 -2.76433975e-002 -1.70440096e-002
      2.60663927e-002 -4.15641926e-002 -1.97423412e-003 3.47113386e-002
      -1.13591813e-001 -8.69966522e-002 -3.48356999e-002
      -8.68785102e-003 1.98136661e-002 6.49688393e-002 3.32433474e-003
      5.20833731e-002 1.09808683e-001 4.71237041e-002 -1.49962036e-002
      -5.24977073e-002 2.10745563e-003 2.17628255e-002 1.28084505e-002
      8.60006921e-003 4.72720936e-002 -1.55139007e-002 3.55712287e-002
      -9.12191626e-003 1.90361664e-002 5.24136610e-003 -1.11641269e-002
      -3.99514735e-002 -3.70029919e-002 -4.69496846e-002
      -3.10631450e-002 2.34796293e-002 3.28705907e-002 3.53309996e-002
      -7.15088006e-003 -1.10956552e-002 5.52706420e-003 -3.61006521e-002
      4.68215393e-003 -3.15595679e-002 -1.00534156e-001 -7.32642487e-002
      -1.33626923e-001 -5.68102263e-002 -5.03006727e-002
      -1.78511292e-002 -2.02862006e-002 -5.10377251e-003
      -7.70996092e-004 3.18142734e-002 6.54995767e-003 2.18669954e-003
      -3.09437420e-002 -5.51258661e-002 1.00764923e-001 1.04913943e-001
      9.15374421e-003 -4.28250283e-002 6.85164556e-002 1.33096920e-002
      4.98209037e-002 -9.83676687e-002 -4.00935672e-002 -1.94076879e-003
      2.30599437e-002 -4.24554758e-002 2.02655774e-002 4.47517335e-002
      -1.96407121e-002 6.84858751e-005 -3.84468995e-002 7.07148910e-002
      3.72332484e-002 2.90485006e-002 5.62019926e-003 -1.87175199e-002
      2.80359536e-002 -3.29439007e-002 1.77348983e-002 3.69358286e-002
      -4.81862202e-002 -7.01069366e-003 -3.83696929e-002
      -3.50108035e-002 -1.46306376e-003 2.26212088e-002 -5.05239926e-002
      -1.05735241e-002 -4.41746674e-002 3.84319685e-002 5.00621125e-002
      6.28088508e-003 -3.82696129e-002 4.32313047e-003 -9.80844069e-003
      -6.81769848e-002 8.70834338e-004 3.28634344e-002 5.55610880e-002
      3.69958580e-002 -1.96302123e-002 8.82060081e-003 -7.04251556e-003
      1.72781553e-002 -2.32963003e-002 8.55730660e-003 5.14863804e-002
      4.93018962e-002 6.40265048e-002 -3.88795845e-002 -7.89883435e-002
      -4.60342690e-003 -5.37634455e-002 -6.64783493e-002
      -4.60242033e-002 -1.76560786e-002 8.48958269e-002 4.25771810e-002
      -1.92010384e-002 -2.54496485e-002 -3.70906107e-002
      -8.63041505e-002 -6.09929003e-002 -3.90687808e-002 1.37870917e-002
      6.00425787e-002 1.93174891e-002 -4.36341204e-002 9.75376554e-003
      -2.88104452e-002 -3.70330252e-002 -1.49666565e-002 1.86835174e-002
      8.80704895e-002 6.78410977e-002 2.37448514e-002 -5.41209206e-002
      4.16655354e-002 8.07497725e-002 8.51201788e-002 1.32434163e-002
      2.02752426e-002 9.64320078e-002 2.62555853e-002 -3.71348970e-002
      -1.00351222e-001 -1.13709897e-001 -1.26043215e-001
      -1.36238948e-001 -7.65805840e-002 -9.11770239e-002
      -1.69515312e-002 2.85559837e-002 -1.30608780e-002 -6.05169423e-002
      -1.43316109e-002 -3.70931551e-002 2.72159260e-002 8.40298552e-003
      -4.69729910e-003 2.64689699e-002 7.87981674e-002 3.90169658e-002
      -2.69155502e-002 3.96817513e-002 -4.28561587e-003 1.13985303e-003
      -3.52781340e-002 -7.80023355e-003 9.19479281e-002 8.79270881e-002
      1.15251280e-001 4.31261249e-002 6.21218234e-002 8.37657824e-002
      1.00044072e-001 3.75847630e-002 7.52458721e-002 1.01154350e-001
      -5.53087816e-002 -2.16641668e-002 -2.40851678e-002
      -3.05482335e-002 -9.87489596e-002 -8.12791139e-002
      -1.02490811e-002 -1.40841156e-002 2.34241341e-003 -1.06281484e-003
      6.65460005e-002 4.77990173e-002 3.75650115e-002 4.94637676e-002
      5.73984571e-002 -2.84946039e-002 1.28301615e-002 2.00213608e-003
      -2.61082537e-002 2.93374509e-002 4.44159769e-002 8.99584144e-002
      1.21480394e-002 5.58699369e-002 4.62155826e-002 2.73305830e-002
      -2.91365031e-002 -9.70527828e-002 -1.34356357e-002 1.43424086e-002
      -3.81425172e-002 1.26276668e-002 -3.05446889e-002 8.58833548e-003
      7.16732442e-003 -4.58662100e-002 9.05589294e-003 -5.36044985e-002
      -4.59024385e-002 3.56897376e-002 3.15166786e-002 6.42891787e-003
      3.29139410e-004 4.11602557e-002 3.29972692e-002 -5.19815199e-002
      5.19696856e-003 -2.13217344e-002 -6.14743717e-002 -4.55950722e-002
      -8.38041827e-002 -1.66560821e-002 -9.62275546e-003
      -3.09112538e-002 -1.56740602e-002 2.55401395e-002 2.35515721e-002
      -5.01509532e-002 8.06793757e-003 -1.26021523e-002 -2.82557448e-003
      2.39254832e-002 -1.18365781e-002 1.83952972e-002 3.62005271e-002
      2.80789621e-002 -4.27146256e-002 -7.78983086e-002 -4.07271832e-002
      6.51436904e-003 -3.67554910e-002 -8.13098159e-003 1.55222099e-002
      2.42375098e-002 2.73604356e-002 -9.32493135e-002 -9.60786939e-002
      -1.03800245e-001 -7.32153878e-002 -5.40252915e-003 4.89997491e-002
      -5.21402294e-003 -8.78486410e-003 4.19586990e-003 -3.78596000e-002
      -2.86007337e-002 -5.51732332e-002 3.79489623e-002 3.25965174e-002
      3.81441377e-002 -1.11852940e-002 3.36444788e-002 1.18326452e-002
      -2.55604573e-002 -3.18659209e-002 -1.61930062e-002
      -1.74398057e-003 2.27246322e-002 4.14380915e-002 -3.60231251e-002
      2.53856974e-003 6.78243721e-003 5.91005236e-002 -2.26489697e-002
      3.75677086e-002 5.58433048e-002 1.11878909e-001 8.84799808e-002
      -3.13644595e-002 -3.52718048e-002 -1.11808740e-002
      -3.36601697e-002 3.59471291e-002 -7.88947791e-002 -8.98390263e-003
      5.34886383e-002 7.65153766e-003 -9.77027342e-002 -4.59642429e-003
      5.23726381e-002 2.42439173e-002 -3.12611870e-002 -1.26791634e-002
      5.52655235e-002 1.41098723e-002 -3.90673354e-002 -3.99430767e-002
      3.24777588e-002 6.27616495e-002 5.47845848e-002 -9.82113276e-003
      4.80556786e-002 4.42938283e-002 9.48220640e-002 7.61382282e-002
      5.65372929e-002 5.69278374e-002 5.77732325e-002 6.35940209e-002
      1.27288938e-001 1.37384832e-001 -1.11429449e-002 2.92202886e-002
      3.69180813e-002 -9.62443128e-002 1.78896245e-002 6.14454597e-003
      5.58018731e-003 -5.37455939e-002 -6.93175495e-002 -1.37611304e-003
      -1.01700909e-001 -1.16059184e-001 2.33110730e-002 3.05274036e-002
      1.95283461e-002 1.27152931e-002 -3.35792005e-002 2.26784330e-002
      -4.12764996e-002 -4.32054996e-002 -7.46313706e-002 4.26240638e-002
      -5.97551838e-003 -4.38403971e-002 -2.10001990e-002
      -1.52620384e-002 -3.17876339e-002 -5.35364859e-002 4.73732539e-002
      7.12404326e-002 1.87488440e-002 2.66843755e-002 4.49434593e-002
      -5.19121066e-002 -1.97193567e-002 -7.63142034e-002
      -1.04675807e-001 -1.13608921e-002 -3.59853823e-003 1.43065117e-002
      -1.18933115e-002 -3.03510614e-002 -6.88188374e-002
      -3.11985966e-002 -2.96840835e-002 -9.19951648e-002 1.14582842e-002
      7.09276721e-002 -1.10066906e-002 -1.31766032e-003 8.04327708e-003
      -4.16852459e-002 -1.75094884e-002 -5.78733161e-002
      -6.36909232e-002 -4.01185900e-002 -3.73408943e-003 3.09861638e-002
      2.24483032e-002 4.12033089e-002 -5.93329966e-002 -4.53556404e-002
      -2.24643871e-002 -2.25566197e-002 2.75623463e-002 5.57180643e-002
      -5.94600625e-002 -1.02833286e-002 9.59997997e-003 -4.90355156e-002
      -5.74411899e-002 -7.22231120e-002 -4.35561985e-002 3.46824937e-002
      -1.06034847e-002 9.69825033e-003 -3.15749310e-002 1.27840918e-002
      -5.35202818e-003 -2.93600932e-002 1.17709814e-002 -9.33916122e-003
      1.87945087e-002 3.60797718e-002 -2.03936081e-002 -2.85103414e-002
      -7.62814563e-003 -6.92240670e-002 -3.10990755e-002 6.03190670e-003
      1.00810053e-002 2.79796892e-003 1.21658696e-002 -8.31119642e-002
      -3.12390365e-002 -2.34947409e-002 9.43574123e-003 2.31873654e-002
      3.26119969e-003 5.90152070e-002 5.59724420e-002 -1.04666157e-002
      -8.19401592e-002 2.00523622e-002 -7.29065482e-003 -1.16141308e-002
      -5.06999018e-003 4.92690736e-003 2.55951062e-002 -5.45876054e-003
      -1.26872376e-001 -5.63274547e-002 -6.28834590e-002
      -3.31942104e-002 -3.54988053e-002 4.14700061e-002 2.64475029e-003
      -3.40121835e-002 -3.46712470e-002 4.75310301e-003 -4.70163226e-002
      -2.20313892e-002 -3.83429378e-002 -6.40778691e-002
      -2.49361936e-002 -2.49305330e-002 1.31250285e-002 -4.84835282e-002
      -9.32171419e-002 -7.02007934e-002 8.45480934e-002 1.54352523e-002
      4.91689034e-002 -8.11211206e-003 5.22037894e-002 5.87625466e-002
      2.16285959e-002 -1.36849701e-001 4.66083549e-002 8.93828049e-002
      8.18411261e-003 4.26124036e-002 -4.60532457e-002 2.17467416e-002
      -4.05012555e-002 6.98216911e-003 -4.74682562e-002 -1.10509150e-001
      3.00181694e-002 -3.07832714e-002 -6.81206658e-002 -5.33886440e-002
      -5.09898402e-002 1.43055562e-002 -6.71185134e-003 -1.13292016e-001
      -5.24561629e-002 9.93617903e-003 -6.85758516e-002 -3.33500877e-002
      -1.21102169e-001 -5.24766669e-002 -4.78063300e-002
      -1.54604679e-002 2.85045756e-003 -2.25518458e-002 -5.65073080e-002
      -2.30949074e-002 -5.30290902e-002 -4.94915433e-002
      -7.04465806e-003 -8.58436376e-002 -1.81991067e-002 4.23208922e-002
      4.95630177e-003 -2.09938884e-002 -1.74041069e-003 -1.60246796e-003
      2.36322042e-002 -3.72149199e-002 -3.41474228e-002 -2.65093427e-002
      -1.76220201e-002 2.89446786e-002 1.27602825e-002 -2.05791928e-002
      -5.27647436e-002 -7.06568807e-002 -3.36479694e-002
      -9.53279883e-002 -1.28219556e-002 6.20592758e-002 -4.15425096e-003
      -2.73961127e-002 -8.89842957e-002 -8.77182037e-002 1.96399763e-002
      -3.64738293e-002 -4.02432978e-002 -4.41784337e-002
      -1.71716232e-002 -2.99902838e-002 -7.77040720e-002
      -4.42426056e-002 -6.85471389e-003 2.76400466e-002 2.25153863e-002
      5.08944504e-002 6.12132065e-003 -2.68410295e-002 -5.84496260e-002
      -5.42311408e-002 1.77865680e-002 -2.91339699e-002 3.59357474e-003
      1.08875837e-002 2.77225617e-002 -1.66321211e-002 -4.22504395e-002
      -1.70513690e-002 -2.35254001e-002 -4.44640666e-002
      -1.29645467e-002 3.85503122e-003 -3.54516692e-002 -1.45018864e-002
      -4.06063907e-002 -3.77139114e-002 -5.72855994e-002
      -1.73252560e-002 6.73023099e-003 -1.67187173e-002 -6.92705903e-003
      -3.67037840e-002 -2.52642278e-002 -3.20510417e-002
      -7.61280302e-003 4.63006226e-003 -1.17550977e-002 2.47377828e-002
      4.30114381e-003 -2.20446400e-002 -5.74379265e-002 -3.55621092e-002
      -3.74951251e-002 -1.52370883e-002 2.05519758e-002 -2.19355542e-002
      -1.36756012e-002 -3.86118963e-002 -5.07124737e-002
      -1.00418560e-001 -5.43399043e-002 -5.36398441e-002
      -1.69767328e-002 -1.41121726e-002 -1.78381559e-002 5.10935038e-002
      -5.41888326e-002 -2.64026355e-002 1.44136176e-002 1.30353123e-002
      -2.56718267e-002 -7.41689047e-003 -6.21420555e-002
      -1.19484328e-002 1.46439821e-002 -9.68107730e-002 -7.11414292e-002
      -2.32656114e-002 -8.45514014e-002 -6.91095218e-002
      -7.19579533e-002 -4.34523262e-002 -2.08736621e-002
      -2.50012632e-002 -2.23456006e-002 -2.40345746e-002
      -1.28498324e-003 7.11658830e-003 -2.40988117e-002 -4.17820178e-002
      -2.94094738e-002 -9.82923713e-003 -6.60284534e-002
      -3.49301510e-002 -8.95199478e-002 -5.20622395e-002
      -4.60152626e-002 -3.00905737e-003 -2.48785364e-003
      -6.37346059e-002 2.43879259e-002 -1.00129079e-002 -2.37083286e-002
      -4.88048270e-002 -3.69870625e-002 -1.11110829e-001
      -6.92538545e-002 -8.58849436e-002 3.27092409e-003 2.05016807e-002
      -5.03855199e-002 9.22746211e-003 -6.41753748e-002 -5.11058755e-002
      -5.95859624e-002 1.35741589e-004 1.63554586e-002 5.13697900e-002
      3.32055390e-002 -5.31076118e-002 -5.19757792e-002 -1.22127883e-001
      -3.97722609e-002 -7.24664629e-002 -6.16248604e-003 3.84800397e-002
      -4.04131934e-002 -6.59437552e-002 -8.14709961e-002
      -6.37050718e-002 -5.11975996e-002 -1.83695164e-002
      -5.28563112e-002 2.56853341e-003 -3.52847353e-002 6.04205839e-002
      5.74077852e-002 -3.87921259e-002 -2.36383229e-002 -4.28261310e-002
      -1.23901367e-002 -4.12487099e-003 3.42803895e-002 3.75611894e-002
      1.94828715e-002 -1.19681202e-003 -6.59649521e-002 -4.09944877e-002
      2.51814947e-002 2.33379602e-002 5.59086166e-002 4.32568453e-002
      -3.05742230e-002 3.81977181e-003 -2.15875786e-002 -5.74122928e-002
      1.87674724e-002 4.41619381e-003 -4.75936383e-002 -9.84834507e-003
      -3.93908024e-002 -2.51621399e-002 4.96007614e-002 1.04300193e-002
      -1.28230136e-002 3.72692049e-002 7.09926756e-003 -3.56282555e-002
      -2.16417946e-002 -2.09113676e-002 3.33935171e-002 4.23915274e-002
      5.66538461e-002 4.19914648e-002 2.81675924e-002 -1.06837170e-003
      1.93770844e-002 2.51697097e-002 -2.64198892e-002 -3.66283283e-002
      2.74883863e-002 -2.37589516e-002 -2.91894004e-002 -1.46128284e-002
      9.25165019e-004 -9.65056475e-003 -6.18976764e-002 -6.87922984e-002
      3.23850848e-002 1.63404662e-002 -2.86176819e-002 -3.10915932e-002
      -5.79829030e-002 -8.08475912e-003 7.16430172e-002 2.58012917e-002
      2.76460196e-004 -4.28838423e-003 -5.42451479e-002 -8.00864864e-003
      -2.55008657e-002 -9.96149853e-002 -6.35100901e-002 1.29044214e-002
      -3.04421186e-002 3.83305806e-003 -7.55467564e-002 2.79747285e-002
      3.95597890e-002 -1.41233124e-003 4.92987689e-003 -6.55666366e-003
      6.30164221e-002 -2.07865927e-002 -1.79727674e-002 -1.96883529e-002
      -3.71079659e-003 2.44888254e-002 -1.03069991e-002 -3.19783352e-002
      2.12926250e-002 4.92694788e-002 8.60821456e-004 2.23410707e-002
      -6.23598658e-002 -1.11119896e-001 -3.21120657e-002
      -4.47877198e-002 -7.24525228e-002 -7.10004717e-002
      -3.70841883e-002 -1.01549603e-001 -5.46242669e-002
      -1.50018051e-001 -6.60922602e-002 -1.02747865e-001
      -1.12285577e-001 -7.68200085e-002 -9.58993882e-002 7.89895840e-003
      -3.06446124e-002 4.93181543e-003 -3.78203876e-002 -2.97905002e-002
      4.19058278e-002 6.98170140e-002 4.15450111e-002 3.49767692e-002
      6.29416993e-003 1.26237364e-003 6.83190599e-002 -1.19102731e-001
      2.33964026e-002 2.86738388e-003 4.38163336e-003 4.45626630e-003
      -3.54402438e-002 7.69894123e-002 5.91691956e-002 9.30083543e-002
      3.45256515e-002 9.12191288e-004 3.54331881e-002 -5.43201761e-003
      7.82051869e-003 -5.60697578e-002 -3.26441042e-002 -6.84513599e-002
      -5.60224988e-002 -3.28494012e-002 7.67559335e-002 2.93963794e-002
      1.59280170e-002 -6.45348728e-002 -7.19057322e-002 -3.07074748e-002
      3.40077952e-002 1.48485219e-002 3.73974703e-002 2.10838718e-003
      3.33406054e-003 2.46295296e-002 2.45082024e-002 1.47919226e-002
      -6.66390918e-003 2.20885454e-003 -2.56222114e-003 -1.77615210e-002
      -3.62345539e-002 -2.54225433e-002 -7.60756433e-002
      -2.93927789e-002 3.98194045e-002 -1.52142551e-002 2.73525789e-002
      -2.79751047e-002 -3.01808957e-002 1.55897876e-002 9.19386465e-003
      -1.72344428e-002 -1.00698210e-001 -8.22731405e-002 9.70969675e-004
      7.93445483e-002 1.91607568e-002 -1.72563046e-002 1.01500349e-002
      -1.05289919e-002 -1.75992725e-003 -6.25331104e-002
      -6.55579790e-002 -9.62436795e-002 -2.85596717e-002
      -7.64214396e-002 -2.54114661e-002 2.18415894e-002 4.04918753e-002
      3.52977635e-003 -5.18306568e-002 1.22255487e-002 -2.13473919e-003
      8.40831399e-002 5.74104786e-002 3.89926471e-002 9.77377295e-002
      7.35245943e-002 -6.34818850e-003 1.50575198e-003 2.04757173e-002
      -6.03754213e-003 2.33848207e-002 6.76352484e-003 4.57481667e-002
      -4.48729889e-003 -1.04467412e-002 -4.47080843e-002
      -2.43651718e-002 -3.34640965e-002 -5.42816222e-002
      -6.97194934e-002 -1.00599244e-001 -4.41770814e-002 3.05809360e-002
      3.34609151e-002 5.64879104e-002 1.81464292e-002 -3.77769442e-003
      4.29213345e-002 3.26642618e-002 2.76630837e-002 -5.38348332e-002
      7.64708295e-002 4.77151498e-002 -4.26390357e-002 -2.04671752e-002
      3.37466598e-002 8.34614784e-003 4.92593925e-003 -2.57229302e-002
      -1.92776304e-002 5.34546301e-002 5.99863864e-002 3.28996256e-002
      4.72922102e-002 4.81052622e-002 6.64438680e-002 9.99570452e-003
      1.26892631e-003 -3.09956484e-002 -1.70881093e-001 -1.21524006e-001
      -4.87004854e-002 -1.10406667e-001 -1.24603011e-001
      -4.67091203e-002 2.04493012e-002 3.79582867e-002 -1.38759285e-001
      -1.98502727e-002 -1.08601652e-001 -3.42207551e-002
      -5.83937839e-002 -7.43492544e-002 1.55881420e-002 -1.63574331e-002
      -1.07146595e-002 -4.08709124e-002 5.74122323e-003 -2.21996401e-002
      -4.74251583e-002 -2.91385707e-002 -2.13302579e-002 1.55196730e-002
      3.08347736e-002 4.14197519e-002 3.80628713e-004 5.23175262e-002
      3.53713036e-002 6.53806478e-002 1.07550636e-001 1.10099167e-001
      6.13760389e-002 4.29509059e-002 6.07527830e-002 6.80036321e-002
      2.54728477e-002 -3.22943442e-002 -5.28895482e-002 -6.03631558e-003
      -1.03181247e-002 -2.85569895e-002 -2.76254397e-002
      -9.59925912e-003 1.85184572e-002 -5.14851213e-002 -9.57599357e-002
      -1.24140933e-001 -3.88700441e-002 -9.62233171e-003
      -3.59225124e-002 -3.92140560e-002 -4.70088869e-002
      -1.47870947e-002 8.02499279e-002 2.96548475e-002 -1.71436070e-004
      3.57229188e-002 8.86384584e-003 7.00236997e-003 3.29823531e-002
      5.89288101e-002 8.13846365e-002 5.07383458e-002 3.19212209e-004
      -5.50333150e-002 -4.00807224e-002 2.08863895e-002 4.95236972e-003
      -3.76468450e-002 2.18199342e-002 5.79667650e-002 1.03616072e-002
      -1.92655697e-002 -5.06086349e-002 -9.01833400e-002
      -6.46246737e-003 -8.17023143e-002 -6.08777963e-002
      -1.12205427e-002 4.74687144e-002 5.42671122e-002 7.70398474e-004
      -3.53684202e-002 -7.69792274e-002 -1.42887915e-002
      -4.95226346e-002 -5.07847406e-002 -2.40169410e-002 2.58636544e-003
      6.35345206e-002 2.41901297e-002 -1.46639831e-002 -2.52199173e-002
      4.96811084e-002 -9.92398988e-003 -5.18757403e-002 6.16928516e-003
      5.24914451e-002 5.79719990e-002 3.75327840e-002 1.81545317e-002
      9.81355272e-003 1.45548200e-002 -4.93326737e-003 -3.41753624e-002
      -3.62287164e-002 -9.43528954e-003 4.74847527e-003 -2.95370594e-002
      -6.95215091e-002 -7.77080506e-002 -1.35953669e-002 1.37510523e-002
      -2.28477679e-002 5.87223610e-003 -3.38425301e-002 2.80377548e-002
      -3.03491708e-002 -8.34538718e-004 -6.41149133e-002
      -3.20319831e-002 4.45559099e-002 1.00196677e-003 -1.60917286e-002
      6.99907029e-003 1.15503101e-002 -2.66415742e-003 -3.73546481e-002
      -1.10418573e-002 3.68081518e-002 3.44111584e-002 1.03325956e-002
      3.54131497e-002 -3.87307703e-002 6.60186112e-002 4.78023477e-002
      3.61587517e-002 -6.22232864e-003 6.12279028e-002 4.73494120e-002
      5.50026149e-002 6.31392077e-002 2.27722563e-002 -2.52360618e-003
      -2.45147888e-002 1.86726078e-002 -8.68034959e-002 -5.48684970e-002
      6.26853062e-003 2.52844710e-002 2.19696425e-002 -1.61357783e-002
      2.84003280e-002 -1.29006226e-002 2.63792872e-002 4.62202802e-002
      6.50737584e-002 5.27241714e-002 5.90405911e-002 8.16592872e-002
      4.79209796e-002 -1.17058279e-002 3.50747928e-002 3.43891531e-002
      -1.20014269e-002 9.56292279e-005 3.39243561e-002 2.60759853e-002
      3.22893932e-002 4.29870840e-003 -5.51627018e-002 3.54423150e-002
      4.73229922e-002 3.27922106e-002 3.29411104e-002 1.80107336e-002
      3.66497450e-002 3.24173421e-002 -3.09691075e-002 2.17441488e-002
      -3.10239084e-002 -1.86224561e-002 -1.32598076e-002
      -2.73392946e-002 -7.07980171e-002 -5.64181209e-002
      -2.63575427e-002 6.35749474e-003 2.04638951e-002 -5.67107685e-002
      -4.44899015e-002 -1.69506539e-002 -8.86210054e-002
      -5.28288446e-002 -6.91247806e-002 -7.58348182e-002 1.04657076e-002
      4.47069183e-002 2.92722657e-002 6.55499250e-002 1.07064798e-001
      9.12242830e-002 -4.14991863e-002 -1.58394650e-002 3.88335660e-002
      4.15885746e-002 9.15468484e-003 -2.91759130e-002 -1.26658184e-002
      3.36196870e-002 1.53170256e-002 8.59292876e-003 -9.21949968e-002
      -7.31803328e-002 1.35660786e-002 3.86314802e-002 -1.11394729e-002
      -7.81380683e-002 -6.09795265e-002 -6.38733432e-002 3.88262235e-002
      -2.49851122e-002 -3.60156931e-002 2.46271081e-002 3.19523178e-002
      -8.16664193e-003 -1.41974362e-002 -5.68115488e-002
      -6.08805232e-002 2.00935192e-002 -2.30040029e-002 -4.54340801e-002
      -8.67309142e-003 -1.09820291e-002 -2.49980818e-002
      -6.48090020e-002 7.12554716e-003 1.63387470e-002 6.39354438e-002
      -4.05303985e-002 9.48120747e-003 2.55604573e-002 1.14873576e-003
      -3.54802012e-002 -1.61158759e-002 4.86447476e-002 2.42001750e-002
      3.07169463e-002 -2.81156376e-002 -4.70793806e-003 2.76446324e-002
      -2.59317849e-002 -6.70855641e-002 -6.23641796e-002
      -7.03669339e-002 -1.81576889e-002 -4.75297309e-003
      -5.70680480e-003 -6.17863797e-003 -3.06463297e-002 1.48016885e-002
      -6.67072013e-002 -4.62644398e-002 -8.51068497e-002 4.75872830e-002
      -1.76117159e-002 -2.10814923e-002 -1.96543764e-002
      -1.16118733e-002 2.25694478e-002 -3.95881236e-002 -3.76878530e-002
      2.66082175e-002 5.49419783e-002 2.55924580e-003 2.97703110e-002
      3.71918604e-002 5.42486086e-002 3.19876149e-002 -6.31124014e-003
      -2.57159006e-002 -9.67100728e-003 7.14784712e-002 -1.42435152e-002
      -1.43980049e-002 -4.52278648e-003 5.66694373e-003 -6.70870021e-002
      -4.51953858e-002 -3.52474675e-002 -3.80020440e-002
      -4.28068219e-003 -1.45128109e-002 -4.03534286e-002
      -4.89442796e-002 -5.36366552e-002 -1.73310563e-002 8.41645896e-003
      2.62914300e-002 3.28434668e-002 4.28021476e-002 -9.32070520e-003
      2.03548130e-002 -2.14059856e-002 -1.23987747e-002 3.96512151e-002
      4.40068450e-003 2.28020642e-002 2.36192774e-002 -2.92822681e-002
      -1.28377089e-002 -1.79086700e-002 -3.73866707e-002 5.11940802e-003
      4.28884402e-002 5.48283057e-003 3.23800184e-002 4.54510301e-002
      -1.15757259e-002 -6.08815067e-002 -1.88907534e-002
      -5.01911379e-002 -5.33230975e-003</_></support_vectors>
  <decision_functions>
    <_>
      <sv_count>1</sv_count>
      <rho>-2.3345191240310665e+000</rho>
      <alpha>
        1.</alpha>
      <index>
        0</index></_></decision_functions></my_svm>
</opencv_storage>
