<?xml version="1.0"?>
<opencv_storage>
<my_svm type_id="opencv-ml-svm">
  <svm_type>C_SVC</svm_type>
  <kernel><type>LINEAR</type></kernel>
  <C>1.0000000000000000e-002</C>
  <term_criteria><epsilon>1.1920928955078125e-007</epsilon>
    <iterations>1000</iterations></term_criteria>
  <var_all>1296</var_all>
  <var_count>1296</var_count>
  <class_count>2</class_count>
  <class_labels type_id="opencv-matrix">
    <rows>1</rows>
    <cols>2</cols>
    <dt>i</dt>
    <data>
      -1 1</data></class_labels>
  <sv_total>1</sv_total>
  <support_vectors>
    <_>
      1.86313987e-002 -2.08782009e-003 -4.89672795e-002 -4.90790494e-002
      6.42446708e-003 5.50588518e-002 4.82465327e-002 9.26236510e-002
      5.02945073e-002 -4.71783318e-002 -3.59528810e-002 -8.29026997e-002
      -1.29452543e-002 1.41523015e-002 3.24427076e-002 3.39168012e-002
      2.79827472e-002 -9.75134037e-003 4.31967870e-004 5.53448983e-002
      3.36167440e-002 -5.22882417e-002 -3.27770039e-002 -3.12292948e-003
      -1.26860132e-002 -8.42821959e-004 -1.59359332e-002 2.79239025e-002
      -2.14024223e-002 -2.70429323e-003 -4.38994206e-002
      -6.82816980e-003 -2.41590831e-002 -2.30601691e-002
      -1.77694540e-002 2.54732724e-002 -5.37439473e-002 1.72210317e-002
      6.11084886e-002 7.33344704e-002 3.22092697e-002 2.06381138e-002
      -9.36306082e-003 2.87340712e-002 -1.85675099e-002 -2.76180990e-002
      3.47798021e-004 -3.14090448e-003 7.16669858e-002 1.99550446e-002
      2.52671372e-002 -9.29253735e-003 3.05799190e-002 -1.33428434e-002
      3.84676643e-003 -5.68873575e-003 1.21360952e-002 8.01734626e-003
      1.12765096e-002 -4.62752022e-002 -9.97519046e-002 2.79896744e-002
      3.88148502e-002 -2.52954178e-002 -2.73219757e-002 -3.99850644e-002
      1.03175389e-002 2.62259245e-002 -3.57924365e-002 -7.19661564e-002
      1.08632399e-002 2.11768993e-003 -6.36606012e-004 2.99289525e-002
      8.68912600e-003 4.87694554e-002 -4.08284329e-002 -4.89583760e-002
      -4.88587357e-002 2.73732040e-002 -2.79613677e-003 -1.97432116e-002
      -8.09211470e-003 2.25081909e-002 -8.54648463e-003 3.64623368e-002
      -3.62884421e-005 1.61024928e-002 5.90562783e-002 -5.84841706e-003
      -3.84304188e-002 7.24445097e-003 -1.32400403e-002 1.64622534e-003
      1.96912382e-002 -9.81722325e-002 -1.72681287e-002 1.26906782e-002
      -1.12876799e-002 3.70983500e-003 1.99378729e-002 1.86565276e-002
      2.81417873e-002 8.56179819e-002 4.57285382e-002 3.38707231e-002
      -8.37441720e-003 2.00174972e-002 -1.31878126e-002 -4.09171171e-003
      1.70928817e-002 5.00906818e-003 -4.38082144e-002 -1.67948194e-002
      -5.26509539e-004 2.41396539e-002 -1.12672262e-002 5.38698584e-003
      -1.42704872e-002 -1.15552125e-002 -5.99405877e-002
      -5.34469709e-002 6.47111004e-003 3.57146449e-002 3.78057137e-002
      -1.57147646e-002 -5.56848869e-002 -4.80505899e-002
      -4.79887314e-002 -2.03730874e-002 -4.29820828e-002
      -9.60000530e-002 -5.41929118e-002 -1.03564881e-001
      -5.41904941e-002 -5.10608032e-002 -3.65167409e-002
      -3.11475694e-002 -2.08195224e-002 -7.36671966e-003 1.07477065e-002
      2.22056024e-002 8.78110807e-003 -3.48247141e-002 -6.63571358e-002
      7.23512024e-002 9.01873037e-002 -1.87916763e-003 -4.05909792e-002
      4.08607870e-002 -3.27829598e-003 3.23611200e-002 -8.81433114e-002
      -4.01178375e-002 -1.42708644e-002 1.58592016e-002 -3.81023996e-002
      2.27747597e-002 3.18724886e-002 -3.45223844e-002 2.00900622e-002
      -2.63151377e-002 7.03804493e-002 1.18063996e-002 8.37471895e-003
      -1.90633889e-002 -2.30181441e-002 9.08371992e-003 -3.49023864e-002
      -3.41556780e-003 5.46308570e-002 -2.27712933e-002 6.58362918e-003
      -1.03372568e-002 -1.70275941e-002 -3.58363576e-002
      -1.08531378e-002 -7.54291192e-002 -2.91962642e-002
      -2.18968932e-003 3.39594111e-002 3.82611826e-002 1.41240377e-002
      -2.95575000e-002 2.23414917e-002 -5.53636486e-003 -6.43322319e-002
      4.12364751e-002 4.49627452e-002 5.15679689e-003 8.92826449e-003
      -2.37727705e-002 5.68816699e-002 3.67847132e-003 2.89104003e-002
      -1.71521772e-002 3.11599541e-002 1.76170915e-002 4.48748060e-002
      5.18749729e-002 -5.10294884e-002 -8.04840922e-002 2.69784518e-002
      -1.28098382e-002 -4.45507281e-002 -9.12154838e-003 1.69978533e-002
      3.27157639e-002 1.48115065e-002 -2.90442854e-002 -1.18301520e-002
      -2.25913730e-002 -4.20561694e-002 -3.16566564e-002
      -5.47343818e-003 -7.09083222e-004 3.20697241e-002 -4.73868707e-003
      -4.02181186e-002 3.50037850e-002 -2.48052720e-002 -6.42630563e-004
      -1.46810049e-002 3.59723382e-002 7.48823881e-002 3.76339145e-002
      -2.37130607e-003 -5.45814373e-002 1.50344903e-002 6.58641607e-002
      6.01850413e-002 6.61251182e-003 2.71616150e-002 7.04046935e-002
      1.94231346e-002 -4.56131399e-002 -5.58739677e-002 -3.92684899e-002
      -5.92691451e-002 -7.26085976e-002 -5.36278374e-002
      -8.41206685e-002 -1.15749128e-002 3.13691571e-002 -3.04810703e-002
      -4.64698970e-002 -2.82291230e-003 -1.50458971e-002
      -7.42424093e-003 1.24311410e-002 -1.35055501e-002 1.26016838e-002
      3.16360034e-002 4.41062823e-003 -5.15171513e-003 4.68971767e-002
      3.28441113e-002 2.56966203e-002 -1.60629544e-002 2.54438375e-003
      4.21448648e-002 4.51057814e-002 6.92909881e-002 4.23190519e-002
      3.66344713e-002 7.92915896e-002 8.31612423e-002 4.29402329e-002
      7.14962780e-002 7.63776526e-002 -4.17405516e-002 -3.71131599e-002
      -1.38481511e-002 -5.10589704e-002 -9.50554386e-002
      -7.30412677e-002 4.36020922e-003 -7.58779887e-003 -1.25575867e-002
      -3.02093773e-004 1.31920576e-002 3.15389410e-002 1.39507325e-002
      5.49441278e-002 3.38229164e-002 -2.67754477e-002 6.99584419e-003
      3.57929664e-003 -2.32447386e-002 1.32822776e-002 5.46971895e-002
      7.50609785e-002 1.03000579e-002 5.01070656e-002 3.98740806e-002
      2.73281708e-002 -1.12984795e-002 -6.76618367e-002 4.65881126e-003
      1.24606071e-002 -4.53195069e-003 -1.71041209e-003 1.97472759e-002
      2.90094540e-002 1.22112827e-002 -4.72237654e-002 7.57605769e-004
      -7.71326870e-002 -4.84507345e-002 1.49419932e-002 -4.30072797e-003
      -1.71667356e-002 -3.69355828e-002 2.89018173e-002 9.02532041e-003
      -7.23835081e-002 -5.80181107e-002 -4.24159318e-002
      -4.15444933e-002 -2.51617227e-002 -6.92961067e-002
      -3.56119312e-002 -4.30556722e-002 -5.26097566e-002
      -8.33574776e-003 7.54986377e-003 -4.81155841e-003 -5.89686297e-002
      1.70649495e-002 2.83308402e-002 1.10798618e-002 2.17540190e-002
      -2.01325677e-002 -4.71400376e-003 2.56351959e-002 1.24804042e-002
      -5.52083328e-002 -5.09273224e-002 -4.21561114e-002 1.54979741e-002
      -3.16930749e-002 -1.54111292e-002 5.57388365e-003 -2.59568002e-002
      -1.19666150e-002 -7.13793859e-002 -6.96169436e-002
      -7.45883510e-002 -4.81043234e-002 -1.22730958e-003 4.51115482e-002
      -9.72017273e-003 -2.08109487e-002 -4.18351451e-003
      -4.56311032e-002 -4.35819328e-002 -5.27435206e-002 5.00455052e-002
      5.75513206e-002 4.48808074e-002 -1.02397278e-002 2.86728311e-002
      3.89191024e-002 6.61169458e-003 -1.09455995e-002 9.24663246e-003
      5.24517009e-003 5.27592842e-003 3.17337848e-002 -3.13654058e-002
      -1.14806145e-002 5.61967865e-003 4.01304029e-002 -3.22652515e-003
      1.80855244e-002 3.32046300e-002 6.71108589e-002 5.75783551e-002
      -3.33311148e-002 -2.57551689e-002 5.98519621e-003 -1.47378352e-002
      1.46419359e-002 -4.73261587e-002 -2.20619957e-003 4.47969809e-002
      -8.68542958e-003 -6.65111244e-002 -1.74015816e-002 2.27854997e-002
      8.87861941e-003 -2.22905371e-002 -3.88303921e-002 2.13884618e-002
      3.36668231e-002 -2.24012304e-002 -2.85349227e-002 2.09227018e-003
      3.99234965e-002 1.45646846e-002 -4.70904559e-002 5.06419409e-003
      1.08257076e-002 5.71074337e-002 4.25546169e-002 2.98766065e-002
      -1.29515277e-002 2.28944737e-002 2.66857017e-002 7.23299459e-002
      9.25197825e-002 -2.61521209e-002 1.46646360e-002 2.63988483e-003
      -4.63875793e-002 4.01186198e-002 3.10990494e-002 1.86196528e-002
      -3.20115425e-002 -5.10097742e-002 -2.91693639e-002
      -4.72610779e-002 -9.10678506e-002 -5.85358124e-003
      -7.04896590e-003 4.26443806e-003 -2.91429926e-002 -5.82190901e-002
      7.81125901e-003 -2.83562113e-002 -5.03603108e-002 -7.24750459e-002
      3.07359230e-002 6.71163993e-003 -1.36439018e-002 7.19544623e-005
      -1.79489851e-002 -1.90298818e-002 -5.05611077e-002 3.95316854e-002
      2.79784575e-002 -1.86619908e-002 1.67613495e-002 5.17658591e-002
      -1.83636118e-002 -2.78685316e-002 -5.31097241e-002
      -8.22283998e-002 -2.49217171e-002 -7.10150413e-003 8.59465916e-003
      2.47309003e-002 2.25214195e-002 -5.38612194e-002 -4.71970253e-002
      -2.84850728e-002 -5.57335764e-002 3.01482826e-002 4.14972641e-002
      2.08941735e-002 1.90559998e-002 2.16205772e-002 -9.04848520e-003
      -1.07780499e-002 -7.31300414e-002 -2.95806937e-002
      -1.03996228e-002 3.64731066e-003 -4.97962115e-003 1.30493043e-003
      -8.55875295e-003 -4.44566980e-002 -3.16038691e-002
      -2.31797546e-002 -4.90627363e-002 -1.21193063e-002 3.08790244e-002
      -5.68110719e-002 -3.17275897e-002 -1.06159719e-002
      -5.58084361e-002 -6.29428923e-002 -4.79051955e-002
      -5.75569645e-002 3.29596549e-002 1.31034339e-002 3.17131653e-002
      -5.19043347e-003 -2.06827447e-002 -2.36465093e-002
      -2.50512268e-002 2.47607883e-002 -3.46267596e-003 2.23365016e-002
      3.42427902e-002 -3.73684876e-002 -1.47297448e-002 5.83638670e-003
      -4.80123833e-002 -2.00061090e-002 3.46383154e-002 1.86057016e-002
      -1.43561307e-002 8.42789654e-003 -4.45862189e-002 -5.20711876e-002
      -2.04816423e-002 4.11512237e-003 1.25607951e-002 -3.97119366e-005
      2.83750556e-002 4.75795045e-002 1.51168201e-002 -3.16664949e-002
      9.02948249e-003 -2.01351047e-002 -3.00846491e-002 -5.70116900e-002
      -5.99604063e-002 -3.90550382e-002 -6.05890714e-003
      -7.79615268e-002 -2.99590025e-002 -7.81460032e-002
      -3.92797068e-002 -2.38627531e-002 1.67556275e-002 -3.29934433e-003
      -1.05436267e-002 -3.45474370e-002 7.31490087e-003 -1.43310125e-003
      -2.41890624e-002 -6.28780574e-002 -3.93175110e-002
      -6.90702796e-002 -7.39523917e-002 -3.21613140e-002
      -4.81945239e-002 -4.78866547e-002 -5.50773703e-002 8.20472464e-002
      1.80815682e-002 4.11147848e-002 -2.24527270e-002 1.40179321e-002
      2.64284834e-002 3.78288738e-002 -8.10854286e-002 -2.33037700e-003
      4.76212092e-002 -2.95760832e-003 4.86354996e-003 -8.35876167e-002
      5.93665382e-003 -3.93558294e-002 -4.57942067e-003 -5.47218695e-002
      -9.28765610e-002 -7.37893675e-003 -4.83039804e-002
      -5.42145595e-003 -5.73023967e-002 -5.61279245e-002
      -1.56163145e-002 -2.26449538e-002 -6.55630603e-002
      -5.59318364e-002 -3.78878526e-002 -7.24309310e-002
      -3.96107249e-002 -1.16684645e-001 -6.21454716e-002
      -6.61573410e-002 -3.57911885e-002 2.39912365e-002 -4.30039912e-002
      -6.05754033e-002 -2.40697283e-002 -3.94793451e-002
      -4.73114960e-002 1.24650477e-002 -5.86368814e-002 7.93318759e-006
      3.06866560e-002 1.00286622e-002 -1.54063338e-003 3.04911230e-002
      2.73063686e-002 1.06253913e-002 -2.12848224e-002 -2.12010625e-003
      2.61350293e-002 -1.55486213e-003 -1.64080709e-002 4.33515478e-003
      -1.73988063e-002 -3.51260900e-002 -6.63602427e-002 6.03557448e-004
      -9.41872522e-002 -9.84705053e-003 2.21356042e-002 -1.06251286e-002
      -5.73146669e-003 -2.97886413e-002 -3.85170244e-002 3.18803638e-003
      1.88085586e-002 -1.00178896e-002 -1.06516192e-002 3.78722884e-003
      -1.34144556e-002 -4.65421677e-002 -4.65244949e-002
      -2.55067460e-002 1.38888452e-002 1.88363083e-002 2.17520837e-002
      2.26271953e-002 -4.86850291e-002 -6.80601895e-002 -2.88397744e-002
      1.00261364e-002 -5.54160960e-002 1.03593711e-003 1.64377631e-003
      1.29018649e-002 -3.80031504e-002 -6.52415752e-002 1.55742690e-002
      1.85093991e-002 -1.82757042e-002 -7.90188462e-003 -5.06451074e-003
      9.51764360e-003 -8.62247776e-003 -2.43415707e-003 -1.63186397e-002
      -2.54365020e-002 6.70604827e-003 9.15323757e-003 5.10377903e-003
      2.31864862e-002 -3.10766418e-002 -2.66709104e-002 -2.43366025e-002
      -1.74940024e-002 8.30164738e-003 -2.07933523e-002 1.99487992e-002
      -1.71583463e-002 -5.81054986e-002 -6.27378151e-002
      -3.57796699e-002 -3.62157933e-002 -2.20420454e-002 1.57981291e-002
      -4.58967648e-002 -2.06057075e-002 -2.70003993e-002
      -6.32851794e-002 -9.43623856e-002 -6.36723042e-002
      -4.29840460e-002 -1.81526539e-003 -2.05199029e-002
      -8.65387451e-003 7.62942806e-002 -2.87829135e-002 4.74269735e-003
      3.61648314e-002 2.72871293e-002 -1.89884659e-002 -2.50574183e-002
      -6.05146661e-002 -3.51031497e-002 2.63060033e-002 -8.92469734e-002
      -7.21069574e-002 -3.41578759e-002 -5.68362884e-002
      -4.99077663e-002 -3.68546844e-002 -6.85368851e-002
      -7.31191710e-002 -3.62910666e-002 2.18772329e-002 -5.20721730e-003
      1.10508071e-003 -1.00381495e-002 -1.92068107e-002 -6.77669719e-002
      -8.27890784e-002 -3.84712070e-002 -8.54105577e-002
      -2.63760109e-002 -8.57884213e-002 -4.66246605e-002
      -6.72290996e-002 -4.01282087e-002 -5.06514087e-002
      -6.11608624e-002 1.17786592e-002 1.20493711e-003 -3.65288258e-002
      -2.98718270e-002 -2.90227290e-002 -7.71242157e-002
      -5.52563556e-002 -1.09815843e-001 -6.53632963e-003 4.45378982e-002
      -5.87581396e-002 -1.22533292e-002 -3.25018205e-002
      -4.16774191e-002 -2.26147156e-002 1.23991678e-003 -7.59217050e-003
      -1.59074552e-002 2.59438474e-002 -4.04263698e-002 -4.63687591e-002
      -9.81238484e-002 -2.39673965e-002 -6.94917291e-002
      -2.01407727e-002 -1.89969093e-002 -5.07652462e-002
      -4.81221154e-002 -4.08938676e-002 -1.36056207e-002
      -5.25415391e-002 7.83863850e-003 -1.51615152e-002 1.68386828e-002
      3.19167017e-003 3.26203965e-002 7.30347112e-002 -1.89864702e-004
      -6.05032546e-003 -2.88351178e-002 -5.73065365e-003 2.42934693e-004
      3.65459584e-002 2.66998950e-002 -4.46296157e-003 8.91677663e-003
      -3.16287130e-002 -2.42136028e-002 1.03530409e-002 4.54724170e-002
      4.58052494e-002 3.64851356e-002 1.62912384e-002 -3.53552797e-003
      -2.97573619e-002 -3.86865214e-002 2.96751615e-002 -1.46036493e-002
      -4.67394255e-002 1.04920063e-002 -9.28933674e-004 -1.00008743e-002
      4.63475958e-002 3.73970531e-002 1.44400140e-002 4.06916551e-002
      -1.01083396e-002 -2.74888389e-002 1.54399034e-002 8.77412688e-003
      2.78786663e-002 2.15416346e-002 2.60170102e-002 2.77339052e-002
      -2.88508739e-003 -2.47245915e-002 1.56247532e-002 -4.20303717e-002
      -4.74370494e-002 -3.10588088e-002 -3.47268418e-003
      -3.46604474e-002 -7.46476576e-002 -3.29208933e-002 1.22934654e-002
      -7.64571596e-003 -6.77680969e-002 -5.72736673e-002 7.58798746e-003
      -8.93177523e-004 -1.47879077e-002 -2.98066381e-002
      -4.63959724e-002 -2.11963113e-002 4.90053035e-002 3.48617397e-002
      -1.00283278e-002 -3.64787057e-002 -6.17196262e-002
      -3.24320458e-002 -3.83095928e-002 -8.38152990e-002
      -5.33372797e-002 8.78411252e-003 -2.48256326e-003 7.17820320e-003
      -8.22627470e-002 2.01957971e-002 3.81728332e-003 -1.87311023e-002
      -3.15333270e-002 -1.67187192e-002 4.23798598e-002 -2.56560463e-002
      -3.18030678e-002 -2.05396265e-002 8.17019865e-003 1.73294302e-002
      -1.59949753e-002 -4.09313217e-002 -5.19388262e-003 3.03108692e-002
      -1.10384608e-002 6.29651069e-004 -2.87830327e-002 -8.77238214e-002
      -5.25642605e-003 -4.59172167e-002 -7.71645159e-002
      -2.72878539e-002 -1.69780925e-002 -5.68543375e-002
      -1.99454427e-002 -1.69864938e-001 -1.19769890e-002
      -2.79246271e-002 -6.22000918e-002 -7.73129836e-002
      -9.04192254e-002 1.02114901e-002 -1.88786630e-002 4.75939829e-003
      -3.66567224e-002 -2.07273122e-002 5.16272634e-002 4.05578390e-002
      2.96560489e-002 1.47149926e-002 -1.75728404e-003 -2.72852015e-002
      3.11554298e-002 -1.06162786e-001 1.99327786e-002 -2.88351569e-002
      -4.02486697e-002 -4.54487726e-002 -3.72352637e-002 3.75943072e-002
      1.07213398e-002 2.25966554e-002 2.85746492e-002 -7.48478854e-003
      3.11999153e-002 -1.72135583e-003 8.11481290e-003 -3.75614613e-002
      -2.48047020e-002 -7.61023685e-002 -4.04636413e-002
      -1.75091773e-002 1.14939772e-002 1.39733246e-002 7.81110162e-003
      -5.25777936e-002 -5.43474928e-002 -2.47598384e-002 9.95578710e-003
      6.99875830e-003 -8.41256697e-004 -1.99571867e-002 1.59650240e-002
      1.45920496e-002 2.00071950e-002 2.80148871e-002 1.07648885e-002
      3.66698625e-003 7.44515285e-003 -1.62498504e-002 -4.63189296e-002
      -1.23576960e-002 -5.20916469e-002 2.81771291e-002 3.64434607e-002
      -2.18820591e-002 8.79517104e-003 6.15430239e-004 -4.63872030e-002
      4.62061260e-003 -3.60295502e-003 -1.80888418e-002 -4.69112135e-002
      -5.45051582e-002 1.29155850e-003 2.52820533e-002 -4.40612808e-003
      -1.53188044e-002 2.90485332e-003 -1.89141165e-002 -1.09511483e-002
      -3.43402401e-002 -1.06002102e-002 -4.42275777e-002
      -2.15496961e-002 -6.19807802e-002 -3.02158017e-002 2.67930590e-002
      2.83608790e-002 -6.09601149e-003 -4.77720657e-003 2.73377057e-002
      -4.31479737e-002 3.31132486e-002 2.86216866e-002 5.87598747e-003
      5.53222783e-002 2.80606020e-002 -3.44095975e-002 -1.69065446e-002
      3.53303887e-002 -1.50017552e-002 1.28101148e-002 1.43547421e-002
      2.55110487e-002 -4.29081218e-003 -1.18991584e-002 -9.05034598e-003
      -3.82344723e-002 -2.11923476e-002 -4.12154496e-002
      -4.27424423e-002 -6.63960949e-002 -3.59487087e-002 2.33789328e-002
      5.89622445e-002 6.81494400e-002 -5.45514049e-003 -3.56856324e-002
      1.80540141e-002 2.19308138e-002 2.26955190e-002 -5.89376017e-002
      6.99338317e-002 2.78043896e-002 -1.13417916e-002 -2.76490375e-002
      1.62164550e-002 1.97749166e-003 3.28655243e-002 -1.67400632e-002
      -2.87860166e-002 3.42296921e-002 6.34761825e-002 5.08190319e-002
      3.47380713e-002 1.15086054e-002 3.10655702e-002 1.37048382e-002
      -1.79088730e-002 -8.03129673e-002 -1.32443815e-001
      -3.75864096e-002 -1.67868659e-002 -5.71512505e-002
      -1.00231938e-001 -2.80815233e-002 3.11625795e-003 2.17128471e-002
      -1.12408757e-001 -3.99497114e-002 -1.00604139e-001
      -8.92411470e-002 -4.98483814e-002 -9.05696899e-002
      -9.80158988e-003 -3.90228517e-002 -1.44543527e-002
      -4.22789492e-002 -1.51329469e-002 -7.68941874e-003
      -1.41463215e-002 -5.41746244e-003 -4.49227430e-002 1.26368925e-002
      4.11456935e-002 2.87461914e-002 -5.33620939e-002 3.61325219e-002
      2.84728203e-002 3.71433571e-002 9.06773880e-002 9.16026607e-002
      3.29161622e-002 1.99235044e-002 4.46332470e-002 5.42098507e-002
      3.89607390e-003 -1.39382202e-002 -3.72297391e-002 -1.06078666e-002
      -2.22000740e-002 -1.93358120e-002 -5.68823749e-003 6.57283980e-003
      -9.69527347e-004 -5.04769012e-002 -8.96013007e-002
      -8.39976445e-002 -6.22436404e-002 -3.71474475e-002
      -4.15334404e-002 -4.11519073e-002 -4.61155772e-002
      -2.66807359e-002 5.93828186e-002 1.61773451e-002 -1.93166323e-002
      2.17570998e-002 -2.03204714e-003 -3.20864581e-002 2.30949875e-002
      4.34657037e-002 6.77845702e-002 2.79430710e-002 1.88565429e-003
      -3.66941318e-002 -1.97276082e-002 1.68772275e-003 8.37576110e-003
      -6.53627096e-003 1.87294055e-002 3.26519050e-002 6.45126775e-002
      -2.94652767e-003 -4.61644605e-002 -6.38891757e-002
      -3.47043737e-003 -8.86284038e-002 -8.08422193e-002 1.13525474e-002
      5.31723984e-002 5.78638762e-002 1.32970372e-002 -3.82418223e-002
      -5.84725142e-002 -1.79808885e-002 -5.41926101e-002
      -2.68689878e-002 -3.57461981e-002 1.05155436e-002 7.07843229e-002
      4.10921350e-002 -1.56567909e-003 -3.24361324e-002 5.97499162e-002
      2.95693595e-002 1.32541149e-003 1.16868699e-002 3.46411392e-002
      6.02686331e-002 6.46924824e-002 2.43550614e-002 3.84531287e-003
      2.90622227e-002 2.11523212e-002 -2.14298405e-002 -1.98055487e-002
      -8.99306312e-003 8.01174250e-003 1.80200080e-003 -5.75872324e-002
      -4.15883251e-002 -1.99780595e-002 -1.60476938e-002
      -1.79568026e-003 4.07631183e-003 -2.53670514e-002 1.48066878e-002
      6.70258282e-003 1.00642517e-002 -5.17404862e-002 -4.65108193e-002
      2.17570434e-003 1.74385472e-003 -2.81082988e-002 -9.90594458e-003
      2.24644318e-002 2.53288858e-002 -4.96985670e-003 1.50489425e-002
      1.29238963e-002 1.51726361e-002 1.61030255e-002 1.83713604e-002
      -1.31721823e-002 4.11744490e-002 4.09978963e-002 4.47953753e-002
      1.94467250e-002 5.72293662e-002 2.22805087e-002 3.78527232e-002
      2.09587198e-002 -1.20423576e-002 -5.37622534e-003 -1.75513402e-002
      1.41720828e-002 -1.11087993e-001 -4.32137735e-002 -1.91028211e-002
      5.75260967e-002 3.21436189e-002 -1.85908712e-002 3.49416398e-002
      1.66239236e-002 1.42438803e-002 -8.54660291e-004 3.97684388e-002
      5.69280330e-003 3.54152210e-002 5.24164513e-002 3.50303799e-002
      -8.26190878e-003 5.75005077e-002 2.61739809e-002 9.18079386e-005
      3.76245230e-002 3.73400040e-002 8.68547335e-002 5.13777509e-002
      -7.97588564e-003 -1.81581322e-002 6.17658682e-002 3.42054777e-002
      2.24676840e-002 4.35968563e-002 1.29108150e-002 3.98595221e-002
      3.17442231e-002 -3.09644900e-002 8.51921458e-003 -3.30381989e-002
      -2.69109737e-002 1.36647122e-002 -4.10349183e-002 -8.68807733e-002
      -4.41095755e-002 -5.63713200e-002 -2.40418548e-003 1.23720700e-002
      -4.52866852e-002 -2.12195739e-002 -1.19831879e-002
      -9.40754116e-002 -4.75059748e-002 -2.32788902e-002
      -6.07700646e-002 -1.17541687e-003 2.06988975e-002 2.45988322e-003
      2.31663082e-002 1.02738917e-001 6.45797700e-002 -4.02551442e-002
      -2.36346200e-002 -6.64246595e-003 1.25725977e-002 5.98007115e-003
      -5.01510166e-002 -1.67159699e-002 4.80352156e-002 5.46048908e-003
      3.96647444e-003 -8.09683055e-002 -6.74799234e-002 8.27971008e-003
      3.92279327e-002 -5.80695085e-003 -5.15498519e-002 -6.10309727e-002
      -5.54531403e-002 5.16029671e-002 -9.25105531e-003 -3.58306468e-002
      7.87640829e-003 7.56407762e-003 -1.48747638e-002 -2.45038737e-002
      -4.93361354e-002 -4.82421108e-002 1.89225581e-002 -1.48320654e-002
      -3.51516306e-002 -3.33997700e-003 1.16086006e-002 -3.61210667e-002
      -5.28425761e-002 4.82409671e-002 3.69267799e-002 7.15063810e-002
      -2.93937884e-002 -1.65330656e-002 2.05539316e-002 2.47434480e-003
      -3.09201032e-002 -2.58093998e-002 6.11579344e-002 3.26720476e-002
      5.44916801e-002 -2.00257003e-002 -2.86292844e-002 3.28710512e-003
      -3.20767835e-002 -5.29912524e-002 -2.48297788e-002
      -7.10970685e-002 -3.91421318e-002 -2.42552944e-002
      -9.36485082e-003 -4.11274992e-002 -4.35921140e-002 3.37263495e-002
      -3.89667861e-002 -5.34930676e-002 -5.88848144e-002 4.58893627e-002
      -2.99642440e-002 2.70017702e-003 -3.20736468e-002 -2.59008035e-002
      2.59368308e-002 -5.43297753e-002 -2.88667306e-002 3.55160497e-002
      1.91275124e-002 -1.88351031e-002 1.64389051e-002 -4.33368701e-003
      1.79089773e-002 2.50016171e-002 -1.42567493e-002 -1.96119081e-002
      -1.21544562e-002 8.57128873e-002 -1.01534871e-003 5.66055626e-003
      -2.63928156e-002 -1.08514051e-003 -4.63953204e-002
      -3.45320664e-002 -2.42172237e-002 -4.16940786e-002
      -1.97125673e-002 -5.24126366e-002 -1.25726247e-002
      -4.98946905e-002 -6.49478659e-002 -3.64381336e-002 4.70729684e-003
      -3.89352092e-003 -1.82922150e-003 -2.68609263e-002
      -2.56606154e-002 1.18685057e-002 -5.61395884e-002 -3.93147990e-002
      4.37400080e-002 -7.33958045e-003 2.46803667e-002 4.16456629e-003
      -1.83356702e-002 6.01452950e-004 1.24359252e-002 -3.00093498e-002
      4.32801154e-003 5.07256724e-002 -4.02598307e-002 1.38164656e-002
      -8.36214144e-003 4.55336049e-005 -2.25795098e-002 1.14993937e-002
      -4.06295583e-002 2.56146062e-002</_></support_vectors>
  <decision_functions>
    <_>
      <sv_count>1</sv_count>
      <rho>-2.2382102680206302e+000</rho>
      <alpha>
        1.</alpha>
      <index>
        0</index></_></decision_functions></my_svm>
</opencv_storage>
